<?xml version="1.0"?>
<opencv_storage>
<cascade>
  <stageType>BOOST</stageType>
  <featureType>HAAR</featureType>
  <height>24</height>
  <width>24</width>
  <stageParams>
    <boostType>GAB</boostType>
    <minHitRate>9.9500000476837158e-01</minHitRate>
    <maxFalseAlarm>5.0000000000000000e-01</maxFalseAlarm>
    <weightTrimRate>9.4999998807907104e-01</weightTrimRate>
    <maxDepth>1</maxDepth>
    <maxWeakCount>100</maxWeakCount></stageParams>
  <featureParams>
    <maxCatCount>0</maxCatCount>
    <featSize>1</featSize>
    <mode>BASIC</mode></featureParams>
  <stageNum>15</stageNum>
  <stages>
    <!-- stage 0 -->
    <_>
      <maxWeakCount>3</maxWeakCount>
      <stageThreshold>-1.9600231945514679e-01</stageThreshold>
      <weakClassifiers>
        <_>
          <internalNodes>
            0 -1 29 -1.0015918314456940e-01</internalNodes>
          <leafValues>
            4.7540983557701111e-01 -8.0645161867141724e-01</leafValues></_>
        <_>
          <internalNodes>
            0 -1 5 -1.2037910055369139e-03</internalNodes>
          <leafValues>
            -1. 2.5779423117637634e-01</leafValues></_>
        <_>
          <internalNodes>
            0 -1 9 -7.4670498725026846e-04</internalNodes>
          <leafValues>
            -8.6400175094604492e-01 3.5265505313873291e-01</leafValues></_></weakClassifiers></_>
    <!-- stage 1 -->
    <_>
      <maxWeakCount>4</maxWeakCount>
      <stageThreshold>-8.9809352159500122e-01</stageThreshold>
      <weakClassifiers>
        <_>
          <internalNodes>
            0 -1 32 -1.8863193690776825e-02</internalNodes>
          <leafValues>
            5.6000000238418579e-01 -7.1153843402862549e-01</leafValues></_>
        <_>
          <internalNodes>
            0 -1 61 -8.2439568359404802e-05</internalNodes>
          <leafValues>
            -9.6747910976409912e-01 2.9601228237152100e-01</leafValues></_>
        <_>
          <internalNodes>
            0 -1 24 -3.0306191183626652e-03</internalNodes>
          <leafValues>
            -8.5897660255432129e-01 3.0758199095726013e-01</leafValues></_>
        <_>
          <internalNodes>
            0 -1 48 2.0400856737978756e-04</internalNodes>
          <leafValues>
            3.7640926241874695e-01 -8.5831296443939209e-01</leafValues></_></weakClassifiers></_>
    <!-- stage 2 -->
    <_>
      <maxWeakCount>4</maxWeakCount>
      <stageThreshold>-1.1311461925506592e+00</stageThreshold>
      <weakClassifiers>
        <_>
          <internalNodes>
            0 -1 14 -6.3247732818126678e-02</internalNodes>
          <leafValues>
            9.3939393758773804e-01 -6.3636362552642822e-01</leafValues></_>
        <_>
          <internalNodes>
            0 -1 34 5.2412845194339752e-02</internalNodes>
          <leafValues>
            -4.2492467164993286e-01 8.5140997171401978e-01</leafValues></_>
        <_>
          <internalNodes>
            0 -1 58 1.0013729479396716e-04</internalNodes>
          <leafValues>
            6.1073076725006104e-01 -5.2282112836837769e-01</leafValues></_>
        <_>
          <internalNodes>
            0 -1 35 -5.6079420028254390e-04</internalNodes>
          <leafValues>
            -8.0569237470626831e-01 4.5296323299407959e-01</leafValues></_></weakClassifiers></_>
    <!-- stage 3 -->
    <_>
      <maxWeakCount>4</maxWeakCount>
      <stageThreshold>-4.4716015458106995e-01</stageThreshold>
      <weakClassifiers>
        <_>
          <internalNodes>
            0 -1 8 -6.6854119300842285e-02</internalNodes>
          <leafValues>
            7.5000000000000000e-01 -5.7377046346664429e-01</leafValues></_>
        <_>
          <internalNodes>
            0 -1 3 9.4477348029613495e-03</internalNodes>
          <leafValues>
            3.1154054403305054e-01 -9.1551750898361206e-01</leafValues></_>
        <_>
          <internalNodes>
            0 -1 13 3.6029659211635590e-02</internalNodes>
          <leafValues>
            -5.4917407035827637e-01 6.6277366876602173e-01</leafValues></_>
        <_>
          <internalNodes>
            0 -1 57 -7.3697377229109406e-04</internalNodes>
          <leafValues>
            -8.2160180807113647e-01 3.6424383521080017e-01</leafValues></_></weakClassifiers></_>
    <!-- stage 4 -->
    <_>
      <maxWeakCount>3</maxWeakCount>
      <stageThreshold>-7.9981392621994019e-01</stageThreshold>
      <weakClassifiers>
        <_>
          <internalNodes>
            0 -1 1 -7.8067925642244518e-05</internalNodes>
          <leafValues>
            4.5762711763381958e-01 -7.6842105388641357e-01</leafValues></_>
        <_>
          <internalNodes>
            0 -1 19 1.8427953124046326e-02</internalNodes>
          <leafValues>
            -4.8268085718154907e-01 8.0263030529022217e-01</leafValues></_>
        <_>
          <internalNodes>
            0 -1 27 6.9240285083651543e-03</internalNodes>
          <leafValues>
            -7.0296216011047363e-01 4.5128795504570007e-01</leafValues></_></weakClassifiers></_>
    <!-- stage 5 -->
    <_>
      <maxWeakCount>6</maxWeakCount>
      <stageThreshold>-6.5923333168029785e-01</stageThreshold>
      <weakClassifiers>
        <_>
          <internalNodes>
            0 -1 15 -3.7588588893413544e-02</internalNodes>
          <leafValues>
            1. -5.2671754360198975e-01</leafValues></_>
        <_>
          <internalNodes>
            0 -1 54 -4.7008581459522247e-03</internalNodes>
          <leafValues>
            9.1731148958206177e-01 -2.6577669382095337e-01</leafValues></_>
        <_>
          <internalNodes>
            0 -1 49 -1.2253397144377232e-03</internalNodes>
          <leafValues>
            6.4096409082412720e-01 -3.7318363785743713e-01</leafValues></_>
        <_>
          <internalNodes>
            0 -1 60 -5.1292835269123316e-04</internalNodes>
          <leafValues>
            -9.0515244007110596e-01 3.1525814533233643e-01</leafValues></_>
        <_>
          <internalNodes>
            0 -1 45 -4.7371000982820988e-03</internalNodes>
          <leafValues>
            7.7398246526718140e-01 -3.8993492722511292e-01</leafValues></_>
        <_>
          <internalNodes>
            0 -1 20 -2.4947850033640862e-03</internalNodes>
          <leafValues>
            6.4404028654098511e-01 -4.3302634358406067e-01</leafValues></_></weakClassifiers></_>
    <!-- stage 6 -->
    <_>
      <maxWeakCount>3</maxWeakCount>
      <stageThreshold>-5.3423199802637100e-02</stageThreshold>
      <weakClassifiers>
        <_>
          <internalNodes>
            0 -1 38 -1.4948733150959015e-02</internalNodes>
          <leafValues>
            7.6923078298568726e-01 -5.1562500000000000e-01</leafValues></_>
        <_>
          <internalNodes>
            0 -1 18 2.8539929189719260e-04</internalNodes>
          <leafValues>
            2.6487526297569275e-01 -9.3715912103652954e-01</leafValues></_>
        <_>
          <internalNodes>
            0 -1 50 -2.3142989084590226e-04</internalNodes>
          <leafValues>
            -9.4482558965682983e-01 1.9732654094696045e-01</leafValues></_></weakClassifiers></_>
    <!-- stage 7 -->
    <_>
      <maxWeakCount>4</maxWeakCount>
      <stageThreshold>-5.8193522691726685e-01</stageThreshold>
      <weakClassifiers>
        <_>
          <internalNodes>
            0 -1 6 -1.0183230042457581e-02</internalNodes>
          <leafValues>
            3.0000001192092896e-01 -6.8085104227066040e-01</leafValues></_>
        <_>
          <internalNodes>
            0 -1 36 -8.6080766050145030e-04</internalNodes>
          <leafValues>
            -9.5942020416259766e-01 2.7913430333137512e-01</leafValues></_>
        <_>
          <internalNodes>
            0 -1 39 -7.2539062239229679e-03</internalNodes>
          <leafValues>
            4.8854520916938782e-01 -5.4518622159957886e-01</leafValues></_>
        <_>
          <internalNodes>
            0 -1 59 1.5132231055758893e-04</internalNodes>
          <leafValues>
            3.6496779322624207e-01 -8.8248258829116821e-01</leafValues></_></weakClassifiers></_>
    <!-- stage 8 -->
    <_>
      <maxWeakCount>5</maxWeakCount>
      <stageThreshold>-6.0554945468902588e-01</stageThreshold>
      <weakClassifiers>
        <_>
          <internalNodes>
            0 -1 7 -1.5683328732848167e-02</internalNodes>
          <leafValues>
            7.2413790225982666e-01 -5.3600001335144043e-01</leafValues></_>
        <_>
          <internalNodes>
            0 -1 22 3.6517127882689238e-03</internalNodes>
          <leafValues>
            -3.4496048092842102e-01 8.3119195699691772e-01</leafValues></_>
        <_>
          <internalNodes>
            0 -1 53 -1.2919916771352291e-03</internalNodes>
          <leafValues>
            -8.0800706148147583e-01 3.9666372537612915e-01</leafValues></_>
        <_>
          <internalNodes>
            0 -1 44 -6.8900056183338165e-02</internalNodes>
          <leafValues>
            4.7650489211082458e-01 -5.4757308959960938e-01</leafValues></_>
        <_>
          <internalNodes>
            0 -1 56 1.0160123929381371e-04</internalNodes>
          <leafValues>
            4.7765904664993286e-01 -5.9775757789611816e-01</leafValues></_></weakClassifiers></_>
    <!-- stage 9 -->
    <_>
      <maxWeakCount>4</maxWeakCount>
      <stageThreshold>-7.5955343246459961e-01</stageThreshold>
      <weakClassifiers>
        <_>
          <internalNodes>
            0 -1 12 -1.6237771511077881e-01</internalNodes>
          <leafValues>
            6.7741936445236206e-01 -5.4471546411514282e-01</leafValues></_>
        <_>
          <internalNodes>
            0 -1 10 4.6845994889736176e-02</internalNodes>
          <leafValues>
            -4.2639723420143127e-01 7.1202981472015381e-01</leafValues></_>
        <_>
          <internalNodes>
            0 -1 46 1.3756337575614452e-03</internalNodes>
          <leafValues>
            -3.3883950114250183e-01 7.6601833105087280e-01</leafValues></_>
        <_>
          <internalNodes>
            0 -1 37 -2.9699676670134068e-03</internalNodes>
          <leafValues>
            5.5039876699447632e-01 -3.8954550027847290e-01</leafValues></_></weakClassifiers></_>
    <!-- stage 10 -->
    <_>
      <maxWeakCount>4</maxWeakCount>
      <stageThreshold>-5.0933045148849487e-01</stageThreshold>
      <weakClassifiers>
        <_>
          <internalNodes>
            0 -1 55 -2.4606331717222929e-03</internalNodes>
          <leafValues>
            -9.5999997854232788e-01 1.9230769947171211e-02</leafValues></_>
        <_>
          <internalNodes>
            0 -1 43 3.6586967762559652e-03</internalNodes>
          <leafValues>
            -4.3248161673545837e-01 6.4056473970413208e-01</leafValues></_>
        <_>
          <internalNodes>
            0 -1 31 2.5350186042487621e-03</internalNodes>
          <leafValues>
            -3.5828596353530884e-01 7.0668041706085205e-01</leafValues></_>
        <_>
          <internalNodes>
            0 -1 52 1.2958326842635870e-03</internalNodes>
          <leafValues>
            3.4290459752082825e-01 -8.9657562971115112e-01</leafValues></_></weakClassifiers></_>
    <!-- stage 11 -->
    <_>
      <maxWeakCount>5</maxWeakCount>
      <stageThreshold>-2.2786830365657806e-01</stageThreshold>
      <weakClassifiers>
        <_>
          <internalNodes>
            0 -1 42 5.3351214155554771e-03</internalNodes>
          <leafValues>
            -5.4621851444244385e-01 5.4285717010498047e-01</leafValues></_>
        <_>
          <internalNodes>
            0 -1 28 -1.3165405020117760e-02</internalNodes>
          <leafValues>
            7.6580196619033813e-01 -3.2984751462936401e-01</leafValues></_>
        <_>
          <internalNodes>
            0 -1 26 -6.4683305099606514e-03</internalNodes>
          <leafValues>
            6.5353083610534668e-01 -4.4521597027778625e-01</leafValues></_>
        <_>
          <internalNodes>
            0 -1 40 2.9081577667966485e-04</internalNodes>
          <leafValues>
            4.0797439217567444e-01 -6.8880593776702881e-01</leafValues></_>
        <_>
          <internalNodes>
            0 -1 16 1.3627234147861600e-03</internalNodes>
          <leafValues>
            -3.8838401436805725e-01 6.9314396381378174e-01</leafValues></_></weakClassifiers></_>
    <!-- stage 12 -->
    <_>
      <maxWeakCount>5</maxWeakCount>
      <stageThreshold>-8.1846344470977783e-01</stageThreshold>
      <weakClassifiers>
        <_>
          <internalNodes>
            0 -1 41 1.3669088482856750e-02</internalNodes>
          <leafValues>
            -4.9606299400329590e-01 6.2962961196899414e-01</leafValues></_>
        <_>
          <internalNodes>
            0 -1 51 2.5813758838921785e-04</internalNodes>
          <leafValues>
            2.9968911409378052e-01 -7.3539489507675171e-01</leafValues></_>
        <_>
          <internalNodes>
            0 -1 25 3.8797161541879177e-03</internalNodes>
          <leafValues>
            -4.1104111075401306e-01 6.1588025093078613e-01</leafValues></_>
        <_>
          <internalNodes>
            0 -1 47 -2.0037435751874000e-04</internalNodes>
          <leafValues>
            -6.0241150856018066e-01 4.2258873581886292e-01</leafValues></_>
        <_>
          <internalNodes>
            0 -1 0 -1.7659376680967398e-05</internalNodes>
          <leafValues>
            -6.3363718986511230e-01 4.5191109180450439e-01</leafValues></_></weakClassifiers></_>
    <!-- stage 13 -->
    <_>
      <maxWeakCount>5</maxWeakCount>
      <stageThreshold>-6.5875440835952759e-01</stageThreshold>
      <weakClassifiers>
        <_>
          <internalNodes>
            0 -1 21 3.0731793493032455e-02</internalNodes>
          <leafValues>
            -6.5591394901275635e-01 2.4590164422988892e-01</leafValues></_>
        <_>
          <internalNodes>
            0 -1 11 -2.9244908364489675e-04</internalNodes>
          <leafValues>
            -7.1521115303039551e-01 3.6368307471275330e-01</leafValues></_>
        <_>
          <internalNodes>
            0 -1 33 1.3437133748084307e-03</internalNodes>
          <leafValues>
            2.1613921225070953e-01 -8.9742064476013184e-01</leafValues></_>
        <_>
          <internalNodes>
            0 -1 4 -2.1464118734002113e-02</internalNodes>
          <leafValues>
            3.7385338544845581e-01 -6.8087911605834961e-01</leafValues></_>
        <_>
          <internalNodes>
            0 -1 23 -4.7573028132319450e-04</internalNodes>
          <leafValues>
            -9.6865302324295044e-01 2.7529495954513550e-01</leafValues></_></weakClassifiers></_>
    <!-- stage 14 -->
    <_>
      <maxWeakCount>3</maxWeakCount>
      <stageThreshold>-6.0179573297500610e-01</stageThreshold>
      <weakClassifiers>
        <_>
          <internalNodes>
            0 -1 17 7.4914158321917057e-03</internalNodes>
          <leafValues>
            -5.1937985420227051e-01 8.3999997377395630e-01</leafValues></_>
        <_>
          <internalNodes>
            0 -1 2 4.7376682050526142e-04</internalNodes>
          <leafValues>
            4.3147385120391846e-01 -4.8062312602996826e-01</leafValues></_>
        <_>
          <internalNodes>
            0 -1 30 -7.4071669951081276e-03</internalNodes>
          <leafValues>
            6.5091532468795776e-01 -5.1388972997665405e-01</leafValues></_></weakClassifiers></_></stages>
  <features>
    <_>
      <rects>
        <_>
          0 1 3 1 -1.</_>
        <_>
          1 1 1 1 3.</_></rects>
      <tilted>0</tilted></_>
    <_>
      <rects>
        <_>
          0 2 12 2 -1.</_>
        <_>
          6 2 6 2 2.</_></rects>
      <tilted>0</tilted></_>
    <_>
      <rects>
        <_>
          0 4 1 14 -1.</_>
        <_>
          0 11 1 7 2.</_></rects>
      <tilted>0</tilted></_>
    <_>
      <rects>
        <_>
          0 6 6 13 -1.</_>
        <_>
          2 6 2 13 3.</_></rects>
      <tilted>0</tilted></_>
    <_>
      <rects>
        <_>
          0 7 12 16 -1.</_>
        <_>
          0 7 6 8 2.</_>
        <_>
          6 15 6 8 2.</_></rects>
      <tilted>0</tilted></_>
    <_>
      <rects>
        <_>
          0 10 3 5 -1.</_>
        <_>
          1 10 1 5 3.</_></rects>
      <tilted>0</tilted></_>
    <_>
      <rects>
        <_>
          0 10 8 12 -1.</_>
        <_>
          0 10 4 6 2.</_>
        <_>
          4 16 4 6 2.</_></rects>
      <tilted>0</tilted></_>
    <_>
      <rects>
        <_>
          0 16 12 1 -1.</_>
        <_>
          6 16 6 1 2.</_></rects>
      <tilted>0</tilted></_>
    <_>
      <rects>
        <_>
          0 16 24 2 -1.</_>
        <_>
          8 16 8 2 3.</_></rects>
      <tilted>0</tilted></_>
    <_>
      <rects>
        <_>
          1 9 3 6 -1.</_>
        <_>
          2 9 1 6 3.</_></rects>
      <tilted>0</tilted></_>
    <_>
      <rects>
        <_>
          1 9 21 5 -1.</_>
        <_>
          8 9 7 5 3.</_></rects>
      <tilted>0</tilted></_>
    <_>
      <rects>
        <_>
          2 3 6 1 -1.</_>
        <_>
          5 3 3 1 2.</_></rects>
      <tilted>0</tilted></_>
    <_>
      <rects>
        <_>
          2 8 21 8 -1.</_>
        <_>
          9 8 7 8 3.</_></rects>
      <tilted>0</tilted></_>
    <_>
      <rects>
        <_>
          2 8 13 9 -1.</_>
        <_>
          2 11 13 3 3.</_></rects>
      <tilted>0</tilted></_>
    <_>
      <rects>
        <_>
          2 14 21 3 -1.</_>
        <_>
          9 14 7 3 3.</_></rects>
      <tilted>0</tilted></_>
    <_>
      <rects>
        <_>
          2 15 21 1 -1.</_>
        <_>
          9 15 7 1 3.</_></rects>
      <tilted>0</tilted></_>
    <_>
      <rects>
        <_>
          2 19 8 2 -1.</_>
        <_>
          2 19 4 1 2.</_>
        <_>
          6 20 4 1 2.</_></rects>
      <tilted>0</tilted></_>
    <_>
      <rects>
        <_>
          2 22 13 2 -1.</_>
        <_>
          2 23 13 1 2.</_></rects>
      <tilted>0</tilted></_>
    <_>
      <rects>
        <_>
          3 11 2 2 -1.</_>
        <_>
          4 11 1 2 2.</_></rects>
      <tilted>0</tilted></_>
    <_>
      <rects>
        <_>
          3 15 12 8 -1.</_>
        <_>
          3 15 6 4 2.</_>
        <_>
          9 19 6 4 2.</_></rects>
      <tilted>0</tilted></_>
    <_>
      <rects>
        <_>
          4 0 11 2 -1.</_>
        <_>
          4 1 11 1 2.</_></rects>
      <tilted>0</tilted></_>
    <_>
      <rects>
        <_>
          4 8 17 9 -1.</_>
        <_>
          4 11 17 3 3.</_></rects>
      <tilted>0</tilted></_>
    <_>
      <rects>
        <_>
          5 13 6 2 -1.</_>
        <_>
          8 13 3 2 2.</_></rects>
      <tilted>0</tilted></_>
    <_>
      <rects>
        <_>
          5 23 3 1 -1.</_>
        <_>
          6 23 1 1 3.</_></rects>
      <tilted>0</tilted></_>
    <_>
      <rects>
        <_>
          6 6 2 15 -1.</_>
        <_>
          6 11 2 5 3.</_></rects>
      <tilted>0</tilted></_>
    <_>
      <rects>
        <_>
          6 8 6 2 -1.</_>
        <_>
          8 8 2 2 3.</_></rects>
      <tilted>0</tilted></_>
    <_>
      <rects>
        <_>
          6 8 6 6 -1.</_>
        <_>
          6 8 3 3 2.</_>
        <_>
          9 11 3 3 2.</_></rects>
      <tilted>0</tilted></_>
    <_>
      <rects>
        <_>
          7 1 2 21 -1.</_>
        <_>
          7 8 2 7 3.</_></rects>
      <tilted>0</tilted></_>
    <_>
      <rects>
        <_>
          7 1 6 11 -1.</_>
        <_>
          9 1 2 11 3.</_></rects>
      <tilted>0</tilted></_>
    <_>
      <rects>
        <_>
          7 4 11 18 -1.</_>
        <_>
          7 13 11 9 2.</_></rects>
      <tilted>0</tilted></_>
    <_>
      <rects>
        <_>
          7 6 4 8 -1.</_>
        <_>
          7 6 2 4 2.</_>
        <_>
          9 10 2 4 2.</_></rects>
      <tilted>0</tilted></_>
    <_>
      <rects>
        <_>
          7 7 3 7 -1.</_>
        <_>
          8 7 1 7 3.</_></rects>
      <tilted>0</tilted></_>
    <_>
      <rects>
        <_>
          7 9 2 12 -1.</_>
        <_>
          7 15 2 6 2.</_></rects>
      <tilted>0</tilted></_>
    <_>
      <rects>
        <_>
          7 23 6 1 -1.</_>
        <_>
          10 23 3 1 2.</_></rects>
      <tilted>0</tilted></_>
    <_>
      <rects>
        <_>
          8 0 13 10 -1.</_>
        <_>
          8 5 13 5 2.</_></rects>
      <tilted>0</tilted></_>
    <_>
      <rects>
        <_>
          8 16 2 2 -1.</_>
        <_>
          8 17 2 1 2.</_></rects>
      <tilted>0</tilted></_>
    <_>
      <rects>
        <_>
          8 16 6 2 -1.</_>
        <_>
          8 16 3 1 2.</_>
        <_>
          11 17 3 1 2.</_></rects>
      <tilted>0</tilted></_>
    <_>
      <rects>
        <_>
          9 0 3 6 -1.</_>
        <_>
          9 2 3 2 3.</_></rects>
      <tilted>0</tilted></_>
    <_>
      <rects>
        <_>
          9 2 6 5 -1.</_>
        <_>
          11 2 2 5 3.</_></rects>
      <tilted>0</tilted></_>
    <_>
      <rects>
        <_>
          10 12 9 5 -1.</_>
        <_>
          13 12 3 5 3.</_></rects>
      <tilted>0</tilted></_>
    <_>
      <rects>
        <_>
          10 16 4 2 -1.</_>
        <_>
          10 16 2 1 2.</_>
        <_>
          12 17 2 1 2.</_></rects>
      <tilted>0</tilted></_>
    <_>
      <rects>
        <_>
          11 3 6 6 -1.</_>
        <_>
          13 3 2 6 3.</_></rects>
      <tilted>0</tilted></_>
    <_>
      <rects>
        <_>
          11 3 10 1 -1.</_>
        <_>
          16 3 5 1 2.</_></rects>
      <tilted>0</tilted></_>
    <_>
      <rects>
        <_>
          11 10 12 1 -1.</_>
        <_>
          15 10 4 1 3.</_></rects>
      <tilted>0</tilted></_>
    <_>
      <rects>
        <_>
          11 10 13 12 -1.</_>
        <_>
          11 16 13 6 2.</_></rects>
      <tilted>0</tilted></_>
    <_>
      <rects>
        <_>
          12 14 6 4 -1.</_>
        <_>
          14 14 2 4 3.</_></rects>
      <tilted>0</tilted></_>
    <_>
      <rects>
        <_>
          12 20 1 4 -1.</_>
        <_>
          12 22 1 2 2.</_></rects>
      <tilted>0</tilted></_>
    <_>
      <rects>
        <_>
          15 4 6 3 -1.</_>
        <_>
          15 5 6 1 3.</_></rects>
      <tilted>0</tilted></_>
    <_>
      <rects>
        <_>
          16 7 3 1 -1.</_>
        <_>
          17 7 1 1 3.</_></rects>
      <tilted>0</tilted></_>
    <_>
      <rects>
        <_>
          16 21 8 2 -1.</_>
        <_>
          16 21 4 1 2.</_>
        <_>
          20 22 4 1 2.</_></rects>
      <tilted>0</tilted></_>
    <_>
      <rects>
        <_>
          17 22 3 1 -1.</_>
        <_>
          18 22 1 1 3.</_></rects>
      <tilted>0</tilted></_>
    <_>
      <rects>
        <_>
          18 1 6 2 -1.</_>
        <_>
          20 1 2 2 3.</_></rects>
      <tilted>0</tilted></_>
    <_>
      <rects>
        <_>
          18 2 4 6 -1.</_>
        <_>
          18 2 2 3 2.</_>
        <_>
          20 5 2 3 2.</_></rects>
      <tilted>0</tilted></_>
    <_>
      <rects>
        <_>
          18 12 6 8 -1.</_>
        <_>
          21 12 3 8 2.</_></rects>
      <tilted>0</tilted></_>
    <_>
      <rects>
        <_>
          18 17 2 4 -1.</_>
        <_>
          18 19 2 2 2.</_></rects>
      <tilted>0</tilted></_>
    <_>
      <rects>
        <_>
          20 2 4 5 -1.</_>
        <_>
          22 2 2 5 2.</_></rects>
      <tilted>0</tilted></_>
    <_>
      <rects>
        <_>
          20 3 1 12 -1.</_>
        <_>
          20 7 1 4 3.</_></rects>
      <tilted>0</tilted></_>
    <_>
      <rects>
        <_>
          20 14 4 4 -1.</_>
        <_>
          20 14 2 2 2.</_>
        <_>
          22 16 2 2 2.</_></rects>
      <tilted>0</tilted></_>
    <_>
      <rects>
        <_>
          21 4 3 10 -1.</_>
        <_>
          21 9 3 5 2.</_></rects>
      <tilted>0</tilted></_>
    <_>
      <rects>
        <_>
          21 12 2 1 -1.</_>
        <_>
          22 12 1 1 2.</_></rects>
      <tilted>0</tilted></_>
    <_>
      <rects>
        <_>
          21 12 3 5 -1.</_>
        <_>
          22 12 1 5 3.</_></rects>
      <tilted>0</tilted></_>
    <_>
      <rects>
        <_>
          22 12 2 2 -1.</_>
        <_>
          22 12 1 1 2.</_>
        <_>
          23 13 1 1 2.</_></rects>
      <tilted>0</tilted></_></features></cascade>
</opencv_storage>
